-0.0205266 0.118044 0.205719 -0.0275744 -0.2148 -0.249497 -0.242645 -0.404513 -0.720302 -0.822689 -0.36149 -0.124138 0.0365624 0.0249145 0.0917494 -0.0077575 -0.0170545 0.163372 0.464165 0.625494 0.404146 -0.13604 -0.508185 -0.173863 0.0556267 0.167095 0.136036 0.172447 -0.284878 -0.637878 0.13108 0.886128 1.08479 0.604458 0.320188 -0.161376 -0.2094 0.229377 0.308938 0.219494 0.216132 -0.633722 -1.11487 -0.965554 -0.244983 0.309564 -0.274662 -0.547708 -0.553348 -0.429448 0.246161 0.179639 -0.194089 -0.295735 -0.0796628 -0.637546 -0.382672 0.0255477 0.455883 0.203614 0.100769 -0.0334848 -0.0173501 0.293278 0.506421 -0.351613 -0.0840881 0.63261 0.50322 1.06015 1.11735 1.11602 1.02496 0.817808 0.602793 0.548973 0.446557 0.392451 -0.0775913 0.357514 0.508255 0.213207 0.186047 -0.137663 0.00589637 0.0785305 -0.032925 0.0387546 0.5441 0.843577 0.396201 -0.12055 0.234985 0.602855 0.299593 0.643572 0.841909 0.897679 0.454871 0.0263928 0.129994 0.438723 0.10988 -0.15145 -0.461533 -0.924747 -0.625192 -0.525197 0.320405 1.44856 1.56629 1.08121 -0.0782391 -0.539299 -0.453556 -0.915622 -0.619868 -0.410598 -1.12125 -1.32412 -0.758274 -0.16338 0.929615 1.24525 0.74754 -0.486634 -1.15126 -1.02911 -1.01154 -0.445435 0.118791 -0.518781 -0.788607 -0.412118 0.0766335 0.583855 0.811412 0.867365 0.461023 -0.324482 -0.646729 -0.48084 -0.208117 0.0810665 -0.503931 -0.56305 -0.274678 -0.11575 0.0965511 0.336963 0.203407 0.202284 -0.219292 -0.318619 -0.187802 0.00763345 0.0478468 -0.217033 -0.246674 -0.306852 -0.461936 -0.489481 -0.253889 -0.221747 -0.408159 -0.283468 -0.0152843 0.185256 0.04622 -0.0428291 -0.00952763 0.0757681 -0.00846627 0.0474456 0.0151815 -0.0301741 0.0392418 0.00998097 -0.0770968 -0.078671 -0.0237898 -0.0238679 0.0376898 -0.0946966 -0.0632427 0.0651768 -0.0677904 -0.092902 -0.0511652 -0.0641133 -0.0982755 -0.0693373 0.0409049 0.0940203 -0.0337768 0.0124136 -0.0835959 0.0853933 0.00805547 0.0285925 0.0585785 0.0130559 -0.0421851 -0.0225602 0.0187276 -0.0990308 0.0221244 -0.0904578 -0.0603847 -0.0603019 0.0681842 -0.00617522 0.0774373 -0.0540641 -0.0246816 -0.0926384 -0.0201756 0.0685594 0.0455385 0.0106504 0.0631296 0.0629363 0.0934634 -0.0930278 0.0589178 -0.021876 -0.0856044 0.0685087 0.0870565 -0.015454 -0.0574396 0.0877825 -0.00617392 -0.0398108 -0.00677597 0.066575 -0.0713801 -0.0166008 -0.0895352 0.0969665 0.0188446 -0.0338764 0.0236141 -0.0618658 0.0717065 -0.0690044 0.00366336 0.0487081 -0.00233823 -0.00189798 0.0442586 0.0693804 0.0772195 -0.00753452 -0.0286522 -0.0570929 -0.0483414 -0.0965369 -0.0288019 -0.0695465 0.0805371 -0.0567558 -0.0361169 -0.0786154 -0.0808018 0.00657131 -0.086123 -0.0689908 0.00216508 -0.0929227 0.0991084 -0.0690955 -0.0628512 -0.034321 0.0175453 -0.0794594 -0.0917529 -0.0695948 -0.0298316 0.0238209 -0.0578993 0.0425726 0.0145326 0.0773608 0.0610984 -0.0372061 0.06816 0.0861024 0.0154127 0.0202292 -0.0722526 0.0622462 -0.0695207 0.0850733 -0.0638886 -0.0213479 -0.0718936 -0.0807667 0.0716305 -0.0330122 0.0964174 -0.0641268 0.0344491 -0.089007 0.0300428 -0.0347576 0.00623468 -0.088852 -0.0839799 -0.00244511 -0.0428642 0.0386376 0.0473298 -0.0577977 -0.0303587 0.031411 0.0667835 0.0711464 -0.0483688 0.0957777 0.032228 0.0358377 -0.092775 -0.057591 0.0609845 -0.00536944 -0.0447737 0.0178329 -0.00287848 0.0221181 -0.0474137 -0.0197174 0.0586394 -0.00363278 -0.00251867 0.0485583 -0.0791194 -0.0494895 0.0799716 0.09066 0.00996322 0.0493595 0.0823079 0.00973267 0.0343875 0.00527697 0.0643627 -0.0580546 -0.072345 0.0656955 0.0127252 0.0304611 0.0622172 0.0162999 -0.0299443 0.0575027 0.0806484 -0.0829067 -0.044909 -0.0910236 -0.0125076 -0.00553937 -0.0323216 -0.022436 -0.0902754 0.066125 -0.0985455 0.0618031 -0.0854809 0.0696521 0.0644803 0.0464789 0.0844303 0.0518722 0.0850494 -0.0523787 0.0959104 0.0803336 -0.0292475 0.0141345 0.0560432 -0.0436375 0.0818597 0.0638488 0.051393 -0.0161657 -0.0993712 0.0899529 -0.0337192 -0.0571507 0.0905843 0.0149884 0.0295547 0.0667686 0.059163 -0.0270748 0.0535198 -0.0182405 0.0873979 -0.0304905 -0.00965851 0.0158789 -0.0927124 -0.0297687 0.0141674 0.0301203 -0.0612128 -0.0228424 -0.088009 -0.0135189 -0.0953179 0.0728598 0.0478875 0.00593001 0.0151591 0.0676808 0.0250338 -0.08433 0.0176578 -0.0639584 0.0864238 0.028788 -0.0447955 0.0138988 -0.0518694 0.0346732 -0.0929915 -0.0111903 0.0779603 0.0425932 -0.0666487 -0.0954558 0.0192568 0.0490794 0.0952336 0.0521851 0.0507315 0.063793 0.054186 -0.0692725 0.046613 0.0916227 0.0131044 -0.0550183 0.0845023 -0.0608972 -0.0945648 0.025418 0.0785443 -0.0609194 -0.0318022 0.0982078 -0.0106832 -0.0151769 -0.0299424 0.091323 0.0427071 0.0445029 -0.0809694 0.0543076 -0.04932 -0.0232952 0.032944 0.0942704 -0.0605951 -0.0214397 0.0454291 -0.0929268 0.0345035 0.0895326 0.067575 -0.0555101 -0.0612838 -0.076793 -0.0470762 0.0493168 -0.0851614 -0.0756633 0.0683921 0.02423 0.0107028 -0.0497257 -0.0653279 0.0811993 0.00398197 0.075145 -0.00792553 -0.05903 0.10042 0.000155941 0.0316014 -0.00152646 0.0152787 0.00528027 0.0337174 0.0845692 -0.0171974 -0.0294037 -0.0994933 -0.0591861 -0.00519538 -0.0889827 0.0530348 0.0594215 -0.0916731 -0.0458148 -0.0620306 0.0372555 0.106173 0.0243822 0.0536465 0.0199067 0.0437516 -0.0440741 -0.0170318 -0.0863154 -0.0642471 -0.0277895 0.092663 -0.0447635 -0.0184782 -0.0198639 -0.0680263 0.0682272 0.0319397 0.0412401 0.0572642 -0.0481763 0.0221088 -0.104232 -0.0720094 -0.0249347 -0.0747195 -0.0257571 -0.0788651 0.00212082 -0.0988112 0.0636478 0.0241749 0.064732 -0.0194216 0.0877875 0.0465602 0.00546324 0.0680248 0.10322 -0.0555977 0.0177727 -0.0910686 -0.144553 -0.0975885 -0.00238493 0.0534299 -0.0859018 -0.108081 -0.185649 -0.0324107 0.049937 0.0458559 -0.066127 -0.0896986 -0.0373027 -0.140343 -0.0802118 -0.0563641 -0.0151486 -0.0627532 0.0538497 -0.0665455 -0.0829457 -0.0384773 0.0684614 -0.149768 0.0162397 0.157335 -0.0107318 0.0547772 0.0789415 0.0720936 0.071231 0.0139117 0.113289 0.133798 0.0225173 0.0951391 -0.0844577 -0.0268145 0.0192506 0.0308488 -0.0295499 0.0753559 0.0879987 -0.00380216 -0.00558541 -0.0268798 -0.020604 0.0703548 0.125664 -0.0323552 0.0884403 0.045102 0.118547 0.0638788 0.179131 0.0112629 -0.0319357 -0.0118141 -0.0701547 0.122709 -0.0221468 0.0159953 -0.0424826 -0.0279608 0.0123069 0.0593937 0.175039 0.186847 0.232729 0.218548 0.121999 -0.0648788 0.0703522 -0.0463745 -0.0751361 -0.0750443 -0.12874 -0.25603 0.0056944 -0.00686253 0.226782 0.111094 -0.0039614 0.0105737 -0.097074 -0.116716 -0.0498243 0.00786174 0.00531398 -0.0586099 -0.170088 -0.0539647 0.0887848 0.0591882 0.0665719 0.226637 0.0125271 -0.0346464 -0.0508859 -0.0788825 -0.0915771 -0.0327608 -0.093805 -0.129282 -0.0472123 -0.04467 0.0402476 -0.043811 -0.0258736 0.125137 -0.0428513 -0.0252504 -0.0999371 0.0894102 0.0792499 -0.101509 -0.0436922 0.0299738 -0.0538188 -0.107357 -0.0459253 -0.104636 -0.0654535 0.00896072 0.0451161 0.00208966 0.0899617 
-0.248258 -0.560332 -0.859755 -1.12194 -1.08019 -0.436592 -0.0783522 -0.107779 -0.523739 -0.58345 -0.420515 -0.464524 -0.17554 -0.6244 -1.05732 -1.34065 -1.8176 -1.47912 -0.527942 0.259275 -0.0536819 -0.637387 -1.17998 -1.22214 -0.901403 -0.429631 -0.676609 -0.886757 -1.21839 -1.30142 -0.43636 0.644751 1.5066 1.23336 0.0123913 -0.806884 -0.936337 -0.811774 -0.515649 -0.221209 -0.0584893 -0.513208 -0.466592 0.401389 1.1511 1.83942 1.3453 0.265386 -0.358415 -0.549926 -0.32101 -0.33826 0.327779 0.556355 -0.150789 -0.466753 0.384015 1.19515 1.30115 0.81987 -0.265938 -0.457285 -0.362361 -0.117799 0.0195555 0.764645 0.497844 -0.634108 -0.68665 0.0404628 0.323943 0.62899 0.257882 -0.392495 -0.623824 -0.554149 0.0384138 -0.0312829 0.520171 0.209156 -0.679767 -0.856964 -0.79838 -0.755763 -0.345772 -0.376531 -0.783097 -0.944337 -0.786994 -0.0841114 -0.0894135 -0.0772779 0.194929 -0.124966 -0.80718 -1.37976 -1.48516 -1.15827 -0.826366 -1.08554 -0.885428 -0.54052 -0.148972 0.0282561 -0.369831 0.044712 0.145226 -0.682751 -1.50638 -1.6991 -1.61947 -1.24587 -0.989733 -0.69401 -0.287255 -0.0268729 -0.186957 -0.488946 -0.0246289 0.523923 -0.263089 -1.37069 -1.53768 -1.61015 -1.19424 -0.631239 -0.109644 0.232627 0.162057 -0.184405 -0.341925 -0.105895 0.316055 0.44002 0.0193943 -0.0807411 -0.193064 -0.0819045 0.0857533 0.543575 0.514534 0.236937 -0.177096 -0.262891 -0.287129 0.138715 0.898772 1.24042 1.35027 1.16769 1.36571 1.17047 0.756396 0.403139 -0.0183441 -0.289576 -0.117473 -0.406699 -0.143325 0.452222 1.0915 1.4465 1.6679 1.56771 1.20214 0.541154 -0.176626 -0.400783 -0.180647 -0.0872704 -0.0293031 0.0275891 -0.0410024 -0.024724 0.0448739 -0.0688556 -0.0634759 -0.018554 0.00800628 -0.0793398 0.0844861 -0.0518158 -0.000862641 0.0909881 0.0643638 -0.0523759 -0.0604912 -0.016112 0.0522702 -0.0477591 -0.0906428 0.0693862 0.020098 0.0213897 -0.0869782 0.0621968 0.0859634 0.0563461 -0.0520008 -0.0200444 -0.0848716 0.0576798 -0.0448974 0.0801867 -0.00897835 -0.0899609 -0.0143608 -0.0045835 -0.0617088 0.0295492 -0.0244635 0.0391219 -0.0401195 -0.0845856 0.0410887 -0.0546579 -0.0871404 -0.0871003 0.092498 0.0453079 -0.0892939 0.0400768 0.0802538 -0.0437393 -0.00247454 0.00695863 0.0821292 -0.048142 -0.0614712 0.039158 -0.0768574 -0.0871607 -0.0961022 0.0712674 -0.0464854 0.0314101 0.0950722 -0.0902572 0.0827093 -0.0561699 0.0466524 -0.096832 0.0564332 0.0811838 -0.0950496 -0.0278304 -0.0712363 -0.0758913 0.000578772 -0.0891501 0.0937236 -0.0668369 -0.0100809 -0.0228129 -0.0160907 0.025127 -0.0888758 -0.0515727 0.0856527 0.0135418 0.0271829 0.0245439 -0.0788503 0.057822 -0.0015628 -0.0548686 0.0404232 -0.0886275 0.0361025 -0.0717179 -0.0836177 0.0703887 0.0144128 -0.0219716 -0.0481278 -0.027869 -0.0225431 -0.0128782 -0.097018 -0.0471481 0.00462738 -0.0406463 -0.0706896 -0.0733954 0.093116 -0.00516621 -0.032884 0.0750555 0.00582745 -0.0447839 0.0463102 -0.0682538 -0.0441555 0.0616793 0.0514297 -0.0594573 0.0652334 -0.0712791 -0.0783797 0.0550676 0.0625746 0.0794843 0.00536812 0.0815629 -0.018618 0.0958766 0.00339541 -0.0481356 -0.0788954 -0.0124809 -0.0586419 -0.0345957 -0.0150944 -0.059088 0.0260138 0.0160115 -0.0910557 0.0835419 -0.0880325 -0.0859235 -0.0868225 -0.00350641 -0.0771357 0.100778 0.00918427 -0.0433774 -0.0438576 0.101292 -0.0439652 -0.0751008 -0.0685229 -0.097338 0.099755 0.0325902 -0.000484185 0.092259 0.0690987 -0.0485914 -0.0183691 -0.036197 -0.0419722 -0.0487442 -0.0622938 0.0921537 -0.0210215 -0.0193376 0.0293195 0.0939615 0.00590622 -0.00940112 0.0315729 -0.0437472 0.0408447 0.0891797 0.0894383 0.00578812 -0.0536002 0.0676859 -0.000593752 0.0693768 0.0926226 0.0929269 0.0369828 -0.00138833 -0.0451059 0.00720438 0.0687051 0.0117267 -0.0269674 0.0914995 0.0849271 0.053967 -0.00820871 0.0220142 -0.0618893 0.0787957 0.003113 0.0710434 0.0270954 -0.0364076 0.0338016 0.017441 0.0683675 0.0215728 -0.0214847 -0.086718 -0.0287225 0.0551386 0.0110579 -0.0925389 0.0849437 0.000782539 0.0954995 0.0551918 0.0427708 0.00183708 -0.0792365 -0.0150689 -0.0736258 -0.032696 -0.0226385 -0.0774951 -0.0548863 -0.020783 0.0102312 0.0913852 -0.0932914 0.0799011 0.0679567 0.0570128 -0.0703254 -0.0734553 -0.0775948 0.0235318 0.0954656 -0.0643032 -0.0997172 0.00604355 0.0133926 -0.0423601 -0.0657264 -0.0444108 0.0446758 0.0416897 -0.049197 0.0824376 -0.0272111 0.0660448 -0.0322199 -0.095315 0.012315 0.082332 -0.0593678 -0.092175 0.0242821 -0.00040785 0.0749901 0.00983484 -0.0606653 0.0429457 -0.0548759 0.0396978 0.0857766 -0.00307477 0.0760468 0.0158879 -0.0800087 -0.0707412 -0.0415694 -0.0476764 0.0930283 -0.0732846 -0.0813361 0.0322376 0.0429071 -0.0446281 0.0340725 0.0967483 0.0851133 0.0601226 -0.0525703 0.0574437 0.098982 -0.0979783 -0.0851331 -0.0322259 0.0186673 0.0826149 -0.0603655 -0.0134783 0.0647929 -0.067918 0.00726742 -0.0222019 0.0745449 0.0960398 0.00201569 -0.0205971 0.0815498 0.0434311 0.0866844 0.00411487 -0.0737255 0.0851243 0.0530009 -0.0713917 -0.0259005 -0.094748 0.0978293 0.0948402 0.0826201 -0.0426623 -0.00511082 0.0942479 0.0873922 -0.0372599 -0.0777807 0.0787687 0.0548945 -0.0974542 0.0263482 -0.0243428 0.044734 -0.0796679 -0.00268262 0.0844397 0.0996049 0.0178451 0.002644 -0.0593175 -0.067018 -0.190894 -0.0498348 0.0562614 0.00825024 -0.0288647 -0.15521 -0.0587969 0.0309633 0.0462281 0.00894715 -0.212399 -0.0863776 -0.180656 -0.276304 -0.0682846 0.0187092 -0.0148059 -0.136156 -0.094648 -0.0602317 -0.0654953 -0.00249045 -0.1869 -0.154764 -0.184584 -0.142318 -0.0413427 0.075638 0.157953 0.0636336 0.0484206 -0.104209 -0.127938 -0.124889 0.00714956 -0.0306865 -0.0747152 -0.144787 0.0296277 0.123422 0.163666 0.133896 0.237975 0.0876077 0.027129 -0.0475278 -0.056794 -0.00359659 0.0407054 0.0701893 -0.0260903 0.040408 0.0387935 0.167462 0.239315 0.18198 0.0758675 -0.00712744 -0.0950961 0.0433677 -0.0680625 0.00431626 0.152997 -0.154409 -0.107732 -0.0266638 0.162308 0.163466 0.105458 0.0330313 -0.141038 0.0384658 -0.0848778 0.0582278 0.134005 -0.0158744 -0.112246 -0.0160395 -0.146991 -0.00414698 0.0583244 0.037472 -0.042945 -0.184545 -0.171497 -0.0711356 0.0422019 0.0993604 0.0656834 -0.119321 -0.11805 -0.21079 -0.110352 -0.0905503 -0.167468 -0.126752 -0.0271409 -0.132762 -0.0993628 -0.0120623 0.0360281 -0.0768681 0.0819946 -0.175895 -0.217373 -0.202793 -0.224948 -0.148129 -0.199029 -0.118441 -0.122625 -0.103242 0.0368941 0.00846138 0.0383937 0.0257675 -0.142879 -0.135139 -0.142584 -0.290182 -0.152658 -0.00457235 0.0124799 0.0456438 0.00971876 0.0086546 -0.0862306 0.0910501 0.0398562 -0.00632449 -0.0665266 -0.159968 0.0217196 -0.0968553 0.0787195 -0.00720572 0.0747908 0.10401 -0.00255394 -0.137958 0.000440574 0.0355663 0.0739297 0.0851206 0.18498 0.0632054 0.0872659 0.105024 0.150724 -0.00296301 0.0789345 -0.0431137 -0.00331023 -0.0133286 -0.0307382 0.177338 0.100686 0.259796 0.251438 0.313353 0.156084 -0.00262768 -0.0420672 0.0361863 0.0342638 
-0.128384 -0.375205 -0.418197 -0.499517 -0.350133 -0.255119 -0.307923 -0.675865 -0.557197 -0.314197 -0.0610216 0.0508397 0.0554219 0.0257606 -0.181939 -0.416017 -0.484272 -0.510523 -0.74065 -0.877481 -0.8609 -0.855522 -0.557409 -0.10487 -0.0631597 0.324808 0.238413 -0.373007 -0.457845 -0.395366 -0.217553 -0.583142 -0.958457 -0.530938 -0.412107 -0.374444 0.099078 0.109878 0.423052 -0.18666 -0.622269 -0.396998 -0.164444 -0.291296 -0.59019 -0.750488 -0.462936 -0.451271 -0.233984 -0.0309184 -0.42203 -0.128161 -1.02138 -0.808001 -0.245603 0.0361584 -0.0182821 -0.208122 -0.343842 -0.443622 -0.59895 -0.0853055 -0.0462585 -0.99101 -1.24409 -1.13918 -0.20134 0.83713 1.04473 0.630463 0.0876538 -0.578128 -0.500088 0.0317292 0.365334 0.424523 -0.549647 -1.45692 -0.652799 0.156743 0.851662 1.52808 1.91385 0.907161 -0.169838 0.110105 1.42006 1.45494 0.773862 -0.592491 -0.618522 0.863319 -0.108644 -0.279112 0.656978 1.51078 0.698491 -0.41559 0.255068 1.69178 0.729242 -0.17151 -0.189435 0.442915 1.77674 0.825081 -0.64359 0.0975495 0.844477 -0.400305 -1.66038 -1.04308 0.946035 0.461798 -0.394643 0.726707 1.35389 1.57916 1.82638 0.563365 0.988011 1.02895 -0.793789 -1.82813 -1.27216 1.05934 1.18804 0.560947 1.83008 1.35134 1.03462 1.19024 0.642062 0.912785 0.588132 -0.620944 -1.32675 -0.885911 0.820056 0.89558 0.621896 1.21481 0.718922 0.557578 1.03453 0.763954 0.528756 0.138558 -0.757638 -1.39757 -0.819099 0.141659 0.455873 0.72686 0.797682 0.409931 0.105087 0.381113 0.52014 0.0826504 -0.0780906 -0.697301 -1.03112 -0.814554 -0.251901 0.126227 0.183376 0.136966 0.0213865 -0.0189515 -0.0826692 0.0723611 -0.0476122 0.0672872 -0.0130707 -0.0541344 0.0823767 0.0342776 -0.00946378 0.0957636 -0.0716956 0.073334 -0.0507829 -0.0281919 -0.0963941 -0.0426945 0.00420703 0.0696983 0.059443 0.016843 0.0134951 -0.0296434 0.0940937 -0.0641376 0.0889468 -0.0500246 0.0466233 0.0969289 0.081984 -0.0567122 -0.0720121 -0.0893664 -0.070294 -0.0544441 0.0508175 0.0544684 0.0545955 0.0244619 -0.0905373 0.0583222 -0.0655486 0.0320033 -0.035111 -0.0358903 0.0531397 0.000162446 0.00398614 0.0930426 -0.0818408 0.0854539 0.00602153 0.0510087 -0.0237246 0.0602446 -0.00387198 -0.00181103 -0.084438 0.0367949 0.0333997 -0.0687672 -0.0296984 -0.0293988 -0.0247798 -0.0201345 -0.0749053 0.0706045 -0.00124181 0.0795369 0.0344651 0.0650302 -0.0685584 0.0402836 -0.035334 0.0197094 -0.0877011 -0.0771562 -0.0542025 0.0777059 -0.0979859 -0.00854612 0.0667827 0.0129956 -0.0652253 -0.0522824 -0.0955962 -0.0193019 0.017532 0.0758519 -0.0131205 -0.073121 -2.73683e-05 0.0521889 -0.0819043 0.0652726 0.0903684 0.0245976 0.0438184 0.0753739 -0.0389089 -0.0914744 0.0947181 0.0310143 -0.0851402 -0.0681991 0.0801072 -0.0834631 0.0555313 -0.0472982 0.0766458 -0.0802827 -0.0885321 -0.0317046 -0.0408962 -0.00908666 -0.098783 -0.00207802 -0.0210277 0.0464507 0.0653617 0.0973864 -0.0320297 0.0847074 0.0232706 0.0917784 0.0842612 -0.00632125 0.0277805 0.0379094 -0.0427882 -0.00214897 0.0796784 -0.0430552 0.0240516 -0.00951443 -0.0880281 0.0420598 0.0113166 -0.0176199 0.0563163 -0.0925979 -0.085719 -0.0585855 0.023822 0.0931688 0.029734 -0.047165 -0.0599473 -0.049954 0.00726631 0.0771611 -0.0729358 -0.0540288 0.0478571 -0.0384464 -0.0488279 -0.06946 0.0618469 0.0255974 0.0182882 -0.0328325 0.063682 0.0726507 0.0772936 0.0982411 0.047739 -0.0897003 0.0429749 0.0284725 0.0139542 0.0827196 -0.0410272 -0.0960007 -0.0254856 0.067973 -0.0882024 -0.00556437 0.0493622 0.0461313 0.064819 0.00474473 0.0320559 -0.000711574 0.0710603 0.0644287 -0.0407054 0.0409501 0.0226765 -0.0855185 0.077526 -0.0545548 -0.0177792 -0.0770119 -0.0940915 -0.042856 0.0654791 0.0680953 0.0284016 0.0792485 -0.0740339 -0.0846508 0.0848374 0.0977675 -0.00717282 -0.0873507 -0.00513871 -0.065675 -0.0660213 0.0547312 -0.0835075 0.0206321 0.072932 0.0217072 -0.0751395 0.0470954 0.0514516 0.0511444 -0.0429714 -0.00339301 0.057588 0.0416152 -0.013909 0.0356825 -0.0878629 -0.0379717 -0.0568425 0.0989686 -0.0713503 0.0513319 0.0487237 0.0795177 0.0463857 0.0760839 -0.0556362 -0.0922067 -0.030222 -0.0395301 -0.0552288 0.0759329 -0.0749782 0.014016 0.0607584 0.0341603 -0.0565931 -0.0839095 -0.010205 -0.0411117 0.0993985 0.0584474 0.0304082 -0.0853545 0.0513924 -0.0349768 0.0667185 0.0792533 0.0835835 -0.0985554 -0.0287331 -0.0381349 -0.0653411 0.0884043 0.0288818 0.00283726 -0.0152658 0.0435058 0.0474479 -0.00950374 0.0649437 -0.0748603 0.0277358 -0.0601894 0.00592424 -0.0316296 0.0424844 0.0471194 0.0374348 0.0655854 -0.0374667 -0.0192871 -0.0763732 -0.00266814 0.100103 0.0811962 -0.0117309 -0.00233176 0.0456943 -0.0159687 0.0566458 -0.0795745 -0.0751314 0.0104492 -0.0644831 0.0891529 -0.0734174 0.0533647 -0.0126028 -0.093264 -0.0186972 0.0499861 0.0680316 -0.0460581 0.078774 0.069404 -0.0292298 -0.0312163 -0.0339768 0.0428225 0.0980087 0.0907606 0.00752085 0.0639271 -0.0762077 -0.0656724 0.013357 -0.00775327 0.0183298 -0.0970455 0.0678087 -0.0550682 0.0776924 -0.0501063 0.0567678 -0.0812702 -0.0385085 -0.00285587 -0.0928117 -0.0779702 -0.0127369 -0.0982917 0.059165 -0.0196185 -0.0930422 0.0347324 -0.0402604 -0.0701356 -0.0937194 0.026618 0.0424892 -0.0456097 -0.0105309 0.0196309 -0.137437 0.0248598 -0.045515 0.0409947 -0.106607 -0.100295 0.0592242 -0.103232 -0.0870055 0.0813739 0.0565786 0.034762 -0.0939559 -0.0914922 -0.0333172 -0.0600052 -0.11812 -0.0718261 -0.0890867 -0.0314116 -0.0834906 0.0920312 -0.031425 0.0447259 -0.0691624 0.0278462 -0.0823269 -0.141318 -0.0540818 -0.0798634 -0.13095 -0.0956853 -0.11567 -0.0322022 0.0521993 0.0890693 0.0230325 0.00199767 -0.100011 0.0653252 -0.0256645 -0.0809768 -0.108937 -0.156502 -0.101369 0.00955603 -0.072328 0.0369956 0.0432903 -0.214449 -0.140561 0.0391556 -0.0305117 0.0587359 0.00748896 -0.0426284 -0.0449052 -0.101672 -0.027071 -0.0992331 -0.0956789 -0.10094 -0.184995 -0.0711837 -0.0156937 0.112188 -0.00206994 -0.0766988 -0.131794 0.013625 0.0423016 0.0152616 -0.0019286 -0.0756676 -0.19811 -0.190913 0.0904363 0.150249 0.229224 0.232262 0.21021 -0.0798814 -0.00995388 0.0958428 0.0771077 0.17915 -0.110771 -0.109222 0.15371 0.0062306 -0.075646 0.0752801 0.260792 0.0244704 0.0497214 0.149395 0.155729 0.0856523 -0.00437533 0.00460727 -0.00908663 0.26883 0.00734846 -0.0958554 0.082476 0.1003 -0.0430063 -0.219784 -0.148156 0.157006 0.119116 -0.0190162 0.170619 0.0605175 0.209537 0.265885 0.0313073 0.14688 0.0717555 -0.123526 -0.279745 -0.0715941 0.118972 0.19409 0.094225 0.170792 0.200268 0.256723 0.0906747 0.0493152 0.173794 0.10605 -0.00848728 -0.209313 -0.0721507 0.0681926 0.184666 0.128934 0.252522 0.185572 0.151695 0.0881187 0.158858 0.103194 -0.0103163 -0.0724778 -0.0922601 -0.0114191 -0.0333797 0.111178 0.159247 0.142627 0.112522 -0.0475377 0.0596757 0.0450007 0.0806621 0.0455105 -0.154252 -0.223969 -0.0791711 -0.0765482 -0.0516638 0.116781 0.127923 -0.0591583 
0.327657 0.709266 1.05881 0.960692 0.446139 0.116511 0.145106 0.4192 0.788403 1.11834 0.919328 0.577054 0.127586 0.393607 0.662734 0.355818 0.166809 0.177643 0.0691522 0.00470797 0.0167869 0.434196 0.617769 0.487072 0.53483 0.375219 0.623221 0.334146 0.413882 0.677548 0.33135 -0.447241 -0.828176 -0.179788 0.257032 0.526687 0.461581 0.652454 0.629212 1.57414 1.09644 1.0118 1.04658 0.426791 -0.208229 -0.270483 -0.00361287 0.306673 1.05536 1.22983 1.24489 1.30287 1.18902 0.645288 0.769383 0.600018 0.169942 0.186071 0.662948 0.397933 -0.0337665 0.572865 0.510364 0.395887 0.605227 -0.0340952 -0.11503 0.493875 0.0878615 -0.468277 -0.122858 0.925418 -0.0236132 -0.628865 0.152576 -0.164596 -0.295248 -0.549386 -0.870187 -0.534397 0.194878 -0.0240132 -0.780071 0.088564 1.52684 -0.131815 -0.708925 0.0246977 -0.277741 -0.629641 -1.19188 -0.673033 -0.766774 0.306213 -0.132377 -0.865494 -0.0579027 0.790253 -0.333737 -0.682876 -0.143755 -0.100407 -0.524772 -0.666745 0.138572 -0.157153 0.42724 0.102998 -0.239418 0.0490587 0.793786 -0.119467 -0.59063 0.128359 0.474945 0.28182 0.678696 0.829948 0.336505 0.547475 0.623607 0.199009 0.225034 0.943926 0.61679 -0.0132494 0.642261 0.804132 0.575962 1.49378 0.987413 0.057065 -0.359275 -0.578148 -0.265067 -0.100743 0.833061 0.667114 -0.386408 -0.467803 -0.233523 -0.117632 0.616304 0.959045 0.457954 -0.174413 -0.613744 -0.661075 -0.171443 0.474777 0.227105 -0.471894 -0.622278 -0.0982413 0.19069 0.482867 0.529069 0.752518 0.586672 0.46746 -0.454825 -0.694738 -0.292809 -0.500825 -0.321223 0.311594 0.886546 0.479498 0.150295 0.0157245 0.0833925 -0.0902911 -0.00346082 -0.0227982 -0.00390609 -0.0960713 0.045063 0.052272 -0.0348062 0.0427938 -0.000456353 -0.0528843 -0.00427348 0.0448348 0.0054661 0.0204348 -0.0785262 -0.0272678 0.0773745 -0.0792664 0.0228523 0.0102106 0.0940505 0.0228107 0.0405553 0.0408251 -0.0145394 0.0954821 0.0967 -0.086479 0.0621899 -0.0671489 -0.0753642 -0.0271964 -0.0498574 -0.0187947 -0.0792257 -0.0640256 0.0810786 0.0864635 0.0151512 -0.0979831 -0.000287445 0.00521549 0.0739543 -0.0368603 0.038274 -0.00231038 0.0429529 0.0171077 0.0221022 -0.0586367 -0.0777471 0.0424098 -0.0442721 0.0989507 0.00416779 0.0338842 -0.0522221 -0.0380533 0.0557721 0.0704617 -0.0636348 -0.0892181 0.0643948 0.0957816 0.0563917 -0.0809546 0.0542991 -0.0977993 0.0296225 0.0302579 -0.0232065 0.0902731 0.00697423 0.0474307 -0.0242663 0.087202 0.0333656 -0.0502109 0.0424627 0.00455712 -0.00352532 0.0921622 -0.0337272 0.0264175 0.00277273 0.0945873 -0.0219758 0.0917029 0.0430993 0.0662769 0.002352 -0.0357129 -0.0947101 0.0937348 -0.0791763 0.071478 -0.00981265 0.0236686 -0.0481938 -0.0103216 -0.0179757 0.0682817 -0.0460732 -0.046697 0.0411788 0.0699803 -0.0380737 0.0788631 0.0506788 -0.0496054 -0.043819 0.0812224 0.0141547 -0.0166275 -0.0251098 -0.0471497 -0.0838196 0.0218341 -0.0210608 0.00905382 -0.072276 0.081787 -0.0357765 -0.0396891 -0.0810259 0.0810449 -0.0554205 -0.000789555 -0.0961209 0.0836637 0.0982825 -0.00839479 0.00904841 0.0385724 0.0788079 -0.0603026 0.000246384 0.0246682 0.0272288 0.0105813 -0.0670248 -0.0730933 0.0502869 0.0986912 -0.0287526 -0.0142572 -0.098556 0.0179298 -0.0442072 -0.0537169 0.0564234 0.0924475 -0.0545414 0.0420385 -0.097734 0.0326625 -0.0907112 -0.0701379 0.0206209 0.0836924 0.0337419 0.0420521 -0.08968 -0.0922246 -0.0382663 0.037351 -0.0821247 0.00775981 0.0649767 0.0184996 0.094137 -0.0445415 0.0980729 0.0631917 0.0214412 0.0146252 0.0401695 0.015152 0.0248858 0.0239065 -0.0380134 -0.0104162 0.0881494 -0.0543195 -0.0890662 -0.0730391 -0.0972988 -0.0400352 -0.0111563 -0.0489527 0.0574851 0.0351041 0.0953559 0.000389289 -0.0633665 -0.0590797 0.0673165 0.0113558 0.0623556 0.0182877 0.0975301 -0.0796244 0.022973 -0.00112738 -0.0483364 -0.00164495 -0.0050376 0.0927752 0.079878 -0.0470661 -0.0400336 -0.0230645 -0.0369201 -0.0636802 -0.0097456 0.0919614 -0.0666407 0.0859257 -0.0150296 -0.075051 0.0497657 -0.0869717 0.000694617 0.070585 0.0838094 0.0125942 0.0549554 -0.0947367 -0.0527859 -0.0257477 -0.057636 -0.0633278 0.0393963 -0.0520483 -0.00524596 0.0255702 0.0766138 0.0303763 -0.0623555 -0.0964961 0.0266691 0.0327095 0.0539559 0.0975882 -0.0424459 0.0176007 -0.0977366 -0.0527219 -0.00922156 0.0130901 -0.0859792 -0.0749739 -0.0319005 0.0410565 0.0238218 -0.0835515 0.0861202 0.0959274 0.0783828 0.0231169 -0.00510359 -0.0152989 0.0136757 0.0483611 -0.082122 0.0788585 -0.0686264 -0.0679743 0.0422847 -0.0835848 0.0339186 -0.0722353 -0.092956 0.0517434 -0.0209136 0.00102509 -0.0614714 -0.071685 -0.00272351 0.0437657 -0.0479229 -0.0309845 -0.0339011 -0.0491476 0.00146485 0.0202113 -0.0597255 -0.000276786 0.0531161 0.0208029 -0.0530679 -0.0885531 -0.0139955 -0.0317857 -0.0267053 -0.0705752 0.0344666 0.0446718 0.084323 0.0229414 -0.00871508 0.0587343 -0.0852519 -0.0576082 0.0111715 -0.0515043 -0.0525074 -0.0768891 0.0710109 0.0174808 0.0804887 0.0125722 -0.0390478 -0.0392491 -0.0465558 0.0193804 -0.0130537 -0.0183658 -0.0171337 0.0596922 0.0339058 -0.0887837 -0.0600426 0.0077343 0.077407 0.095118 -0.0683643 0.0659906 -0.0157519 -0.0565302 0.0334903 0.00086287 0.0544032 -0.0731196 0.0261442 0.0811972 0.0170282 0.162109 0.219051 0.148807 0.0955301 0.0762031 0.0255401 0.0929281 0.176007 0.0605619 0.0915835 -0.0751478 -0.0040863 0.000578818 0.0696429 -0.032443 -0.0434284 0.0512397 0.0472602 -0.0440705 0.0702953 0.107507 0.12143 0.104419 0.0587308 0.0709253 0.110416 0.0168836 0.0218601 0.0718153 -0.00201889 -0.093347 -0.0933721 0.00732125 0.16201 0.00621746 0.0218113 0.073772 0.198548 0.195797 0.0546351 0.222057 0.136961 0.0869295 0.0274406 0.071718 0.00214389 0.121255 0.169152 0.240148 0.189714 0.145228 0.0222541 0.0886322 -0.00457203 0.0187047 -0.0572261 0.125911 0.141617 0.0994697 0.0238132 0.063347 -0.0140595 0.0674196 -0.0495725 -0.0407626 0.00937987 -0.0312916 -0.0972586 0.0590314 0.112569 -0.100167 -0.116078 0.0372132 0.0577458 -0.0798833 -0.110489 -0.090498 -0.151584 0.0579896 0.0534071 -0.127779 -0.0702569 0.105092 0.0319925 -0.117381 -0.0840664 0.0517968 -0.018482 -0.115364 -0.0770976 -0.0580191 -0.0473214 -0.036666 -0.149818 -0.0574905 0.0975724 -0.0670271 -0.120756 -0.094835 -0.0273246 -0.0156801 -0.206029 0.046878 0.00215667 0.0517176 -0.000564031 -0.150682 -0.0708278 0.0775079 0.0300306 -0.0220782 -0.0798777 0.139139 -0.0577086 0.131923 0.0663943 0.0226463 -0.00685814 0.119213 0.0395766 0.0879168 0.0952534 0.0152932 -0.0732831 0.00143329 0.0551587 0.0587726 0.195081 0.104308 0.0481504 -0.124499 -0.133884 0.00322611 -0.0872214 0.161094 0.0224798 -0.0096677 0.0513206 0.00537351 -0.0244421 -0.00283744 0.134441 0.0205109 -0.0230888 -0.135167 -0.0801154 0.0553767 0.164105 0.10548 -0.0590391 -0.183069 -0.0687714 0.00542378 0.0762789 0.0877251 0.150601 0.0355788 -0.0311997 -0.113229 -0.0932372 0.00191255 -0.0741792 0.0194688 0.038163 0.141506 0.0729015 -0.0252179 
0.010071 -0.0608416 -0.0855876 -0.246403 -0.073299 0.0942266 -0.00095624 0.0285463 -0.109395 -0.252094 -0.231116 -0.129018 0.0393315 -0.1627 -0.00738616 -0.163907 -0.133049 0.47003 0.748141 0.749544 0.656264 0.210142 -0.247395 -0.377802 -0.265799 -0.141585 -0.392626 -0.685745 -0.57832 -0.148436 0.301935 0.510625 0.624063 0.479305 0.255851 0.0114923 -0.585034 -0.585065 -0.403406 -1.1152 -1.25909 -1.115 0.360353 0.851329 0.479109 0.395279 0.589004 0.593371 -0.00348721 -0.863435 -1.14443 -0.743307 -0.784889 -1.0304 -0.827703 0.546586 0.403279 -0.414986 -0.885131 -0.639126 0.427177 0.225057 -0.881885 -0.975047 -0.488166 0.489663 0.0614643 -0.546812 0.125136 -0.706036 -1.09045 -1.14946 -1.10928 -0.172333 0.430855 -0.0393034 0.283546 1.19504 1.42638 0.351844 -0.355737 0.153472 -0.131306 -0.62908 -0.512733 -0.487273 -0.469595 -0.326052 -0.780705 0.419554 1.82646 1.61719 0.588662 0.532446 1.12073 0.912493 0.638537 0.727566 0.704479 0.926242 0.644357 0.564563 0.661076 1.5296 0.774303 0.318013 0.871776 1.15342 0.98426 0.89885 1.04115 1.1536 0.821118 1.09875 0.863295 0.148858 0.46699 0.103693 -0.603456 0.135813 0.51424 0.135958 -0.213191 -0.233219 0.159854 0.174185 0.407955 0.409465 -0.138248 -0.069492 0.45801 0.121868 0.351911 0.243865 -0.152861 -0.710952 -1.34546 -0.923565 -0.294186 0.212231 0.669915 0.651863 0.271711 0.258404 0.233841 0.115549 0.268327 -0.167714 -0.69545 -1.0303 -0.967947 -0.370435 0.225462 0.640215 0.344622 0.113979 0.0607335 -0.0502494 0.0696914 -0.0617059 -0.325042 -0.518889 -0.716274 -0.760422 -0.466798 -0.122954 -0.00432998 -0.0963508 0.029134 0.086868 -0.0637125 0.00388426 -0.000532555 -0.0204295 -0.0474488 -0.0482564 -0.0745613 0.0133079 0.0537958 -0.0733444 -0.0941316 -0.0663913 -0.0224186 0.0938961 0.00997989 -0.0638094 0.0236685 -0.0106466 0.0211404 -0.00490921 -0.00193861 -0.0838713 -0.0237314 0.0713928 -0.0899086 0.0726014 0.0985039 -0.0665293 0.0316119 -0.000261318 -0.0151267 0.0254575 0.0266533 0.0257088 0.000731436 -0.0935386 -0.0502708 0.0868188 -0.0603076 -0.0994504 0.0281868 0.00735077 0.0996801 0.0803592 0.0301759 0.0267028 0.0438616 0.021943 -0.0791573 0.0398117 -0.0100701 0.0663007 0.0302293 -0.0499179 0.0857854 0.0960425 0.00544347 5.53415e-06 -0.0610411 -0.00721073 -0.00841959 0.0668677 0.0393564 -0.0193274 -0.069622 0.0213839 0.0507562 -0.00667103 -0.0344381 0.0889278 0.00355461 0.10019 0.0942351 -0.0597385 -0.0330597 -0.0789016 0.0542118 0.0720363 0.0514447 0.0632723 -0.0533512 -0.0518257 0.0819819 0.0963455 0.00512887 -0.0989795 0.0217514 -0.0736511 0.0330808 0.0737463 0.0868538 0.0667554 0.0914631 -0.0277057 0.0158985 0.0655594 -0.0430365 -0.0926411 0.0431326 0.00181366 -0.0460245 -0.0694023 0.0389698 0.0882952 0.0687768 -0.080133 -0.0266051 -0.0896614 -0.0568594 0.00703069 -0.0492287 -0.0517361 0.0738174 0.0315993 -0.0174717 0.0776171 -0.00355912 -0.00488442 -0.0512299 -0.0813036 -0.0192801 -0.00272438 -0.0978112 -0.0628762 0.0386724 0.0466285 -0.0231958 -0.0482309 -0.0497162 0.00922028 0.0558213 -0.0446321 -0.0892628 0.0976845 0.0554283 0.0980311 -0.097616 -0.0522868 -0.033877 -0.0437091 0.0176898 -0.0857973 -0.0584221 -0.0750842 0.0109587 0.0204394 -0.0423482 0.0573761 -0.0929588 -0.0343116 -0.0895495 -0.0199703 -0.0434729 0.0671006 -0.0845504 0.0371094 -0.034251 -0.0800762 0.0557417 0.0583576 0.0790732 0.0560989 -0.0560573 -0.0752651 0.0485204 -0.0283929 -0.0656589 -0.0813449 0.0745834 0.0283431 -0.0287202 0.0239216 0.031377 -0.0179541 -0.092284 -0.000988805 -0.00197629 0.0485741 0.0584523 -0.0584571 0.077078 0.0568314 0.0376449 -0.0154596 0.0163891 0.00146508 0.0519706 0.0642044 0.0469743 -0.0574956 0.0853418 -0.0245516 0.0536489 -0.0116383 -0.0494613 0.0493146 0.0293281 0.0560006 0.0508333 0.0988676 -0.00206549 -0.0241535 -0.00120143 -0.0650268 -0.031714 -0.0919077 0.0129914 -0.0713644 0.00510655 0.0581485 -0.0829876 0.0913447 0.0713346 0.0146719 -0.0623576 -0.0485823 -0.071065 -0.0911655 0.009808 -0.0309714 0.0846101 -0.0396327 -0.0338269 0.0378071 -0.0955078 -0.0554009 0.0952497 -0.0846119 -0.0720641 -0.0620341 0.0447344 -0.0617917 0.0194479 0.0183693 0.0435551 -0.029601 0.047638 0.091543 -0.100962 0.0322755 -0.0665578 -0.00993933 -0.0678466 -0.0813456 0.0914019 0.0927658 -0.100331 0.0650781 0.0115308 -0.0792925 0.0690222 -0.0460892 -0.0943311 -0.0686967 0.0831756 -0.0635268 0.00132242 0.078906 -0.0233881 -0.0358384 0.0607158 -0.0642033 0.0544211 0.0949977 0.00709422 -0.0313854 0.0749947 0.0619917 -0.0865613 0.0436223 0.0960739 -0.0197414 0.011885 -0.00266773 -0.0904683 -0.0950674 -0.0352393 0.0488323 0.0978805 0.05941 0.0979051 -0.0402792 0.0935146 0.0855875 -0.0261868 -0.0930488 0.0986812 -0.0709435 0.0435473 -0.0568047 -0.0206065 -0.0938287 -0.0207534 0.05871 0.0905969 -0.0127956 -0.0250894 0.0681829 0.0420169 -0.000900857 0.0482216 -0.0207712 0.00724178 0.000180535 0.00815965 0.0481026 0.0197395 -0.023851 -0.0450138 -0.0478696 -0.0178416 0.0287473 -0.0376655 -0.0357658 -0.0715993 0.0779461 -0.0166189 0.0620051 -0.0363285 0.015444 0.0560146 -0.0982164 0.0686235 0.0896396 0.0513321 0.0198966 0.0395322 -0.020174 0.0514295 -0.0492385 0.0856596 0.0305195 -0.0453677 0.0138385 -0.0774432 0.0818598 0.0140398 0.0886785 0.000766758 -0.0895221 -0.065019 -0.0348049 0.0990968 0.0289209 -0.093531 0.0589839 -0.0301059 -0.112585 0.0530779 0.0700132 -0.101763 -0.0449999 -0.00958805 -0.0859907 0.0262232 0.00297716 0.180458 0.115555 0.111507 -0.0157326 -0.122176 0.0483708 -0.0884548 0.00847312 -0.0893876 -0.0973048 -0.0127092 -0.00181748 0.131777 0.00355408 0.0905818 -0.00672334 0.0682777 -0.079355 -0.043079 0.00264551 -0.156741 -0.109741 -0.229579 0.0267013 0.0497176 -0.0110148 0.115012 0.165579 0.0286876 -0.0292843 -0.0397789 -0.24547 -0.151031 -0.0397488 -0.0616232 -0.159774 0.0209379 0.112568 0.0136731 -0.0288376 0.0665361 0.0803842 -0.0579509 -0.182134 -0.0530195 0.0166408 0.00402393 0.00650027 -0.171949 -0.012281 0.00356762 -0.0850944 -0.251335 -0.128123 0.0349941 0.12479 0.0545261 0.0760319 0.0782113 0.244055 0.0385398 0.0237632 0.0232713 -0.113675 -0.0313873 -0.127644 -0.116653 -0.0104319 -0.107528 -0.079732 -0.00831194 0.218401 0.102317 0.00156881 0.0314108 0.18092 0.117507 0.0516402 0.0245341 0.1142 0.0543855 0.0985149 0.10777 0.049262 0.236156 0.0916581 0.0361971 0.150635 0.176145 0.061414 0.0565992 0.101261 0.189812 0.0575725 0.0515093 0.136962 0.00975156 0.111501 -0.0435107 0.0299659 0.0789709 0.0185264 0.0643249 0.00110928 0.0522313 -0.0333519 0.0805496 0.0369638 0.111169 0.0131034 0.0731247 0.111707 -0.00936848 0.0320448 0.0551669 0.0475884 -0.139389 -0.124044 -0.051477 0.0506142 0.088115 0.117724 0.188673 0.107779 -0.0434558 0.0408232 0.0538431 -0.021592 -0.0212558 0.0212285 -0.225137 -0.0837961 -0.111255 -0.0174394 0.0814005 0.0132361 -0.0251723 -0.0245288 -0.0614705 -0.0321062 -0.101225 -0.0781268 -0.122594 -0.209419 -0.0120943 0.0254052 0.0482153 -0.0131153 0.0320624 0.0225414 
0.500395 0.567954 0.192145 -0.464755 -1.13925 -1.82923 -2.24007 -1.5708 -1.20412 -0.893074 -0.27462 0.279582 0.505597 0.745145 0.945669 0.918022 0.110037 -0.421393 -1.23069 -1.81426 -1.1653 -0.504585 0.013622 0.539683 1.06246 0.728913 0.517455 0.78342 0.798947 0.55257 0.202297 -0.328628 -1.10496 -0.633062 0.0659049 0.69773 0.569054 0.664442 0.628 -0.218362 -0.125384 0.255596 0.469737 0.748243 0.249275 -0.720525 -0.0259217 0.832087 0.792185 -0.13621 -0.038586 0.0652149 -0.388517 -0.230245 0.11164 0.569194 0.907292 0.239285 -0.615825 0.193274 0.596735 0.521626 0.0881025 -0.125637 -0.466174 -0.549761 -0.328994 0.261048 0.0722734 0.738692 -0.10201 -1.01076 0.344814 0.435858 -0.0408972 0.195689 -0.0613361 -1.02649 -0.801138 0.0570295 0.727913 0.527165 1.25876 0.618295 -0.360935 0.799215 0.710915 0.248155 0.764292 0.15106 -1.07927 -1.12036 -0.0844698 0.305306 0.302889 0.952879 0.622112 0.350884 0.419231 0.509522 0.495527 0.257083 0.0739339 -0.909744 -1.1406 0.104481 0.310082 0.588085 0.963964 0.729968 0.430145 0.192555 0.442398 0.427712 -0.00182055 0.0823319 -0.44842 -0.417693 0.226197 -0.0534477 -0.27171 0.565923 0.878217 0.703076 0.497511 0.701568 -0.0905866 -0.172838 -0.0738699 -0.181255 -0.468594 0.3965 0.249771 -0.205821 0.169918 0.573975 0.583089 -0.00315558 0.0821004 -0.344704 -0.0791574 0.104328 0.183246 -0.300151 0.0421703 0.463805 0.283025 0.448931 0.997985 1.14352 0.726833 0.446219 0.108866 -0.0289042 0.207562 0.24727 -0.0616619 -0.240423 -0.294633 -0.273865 0.154797 0.765574 0.896433 0.831045 0.396198 -0.20757 -0.329013 -0.0388342 0.149694 -0.0937038 0.00756834 0.0596569 0.0488373 -0.094768 -0.017539 -0.0446825 0.0913269 0.0159503 0.0551567 -0.0346921 0.0486393 -0.0353531 -0.00270686 0.0239463 0.0728397 -0.0678902 0.054876 -0.0783268 0.0958703 -0.0963788 0.0272708 -0.0963133 -0.0310624 0.0810567 -0.0478854 0.0287176 0.0990823 -0.0108665 -0.0893004 -0.0224051 -0.0518008 0.00709167 -0.0398714 0.0967026 0.0480035 -0.0406378 0.0900412 -0.0606313 0.0778356 0.0894154 0.0165549 -0.0981548 0.0759128 0.0557478 -0.0748817 0.0461576 -0.0630972 0.0815245 -0.0466004 0.0515941 0.0399443 0.077439 -0.0646604 0.0175677 -0.0288817 0.0822264 0.00218843 0.0838688 0.0204522 0.0542079 -0.0432081 -0.065806 -0.0468852 -0.0766167 0.0171253 -0.00599362 -0.0315719 -0.0414108 0.0368914 -0.0233916 -0.0206541 -0.0176141 0.0260024 -0.0227552 0.0501265 0.0311016 0.0447239 -0.0137628 -0.00644824 0.0354444 -0.0916114 0.00447945 -0.066468 -0.0693807 0.00336831 0.0491681 0.0274377 -0.0869929 -0.00526285 0.0191709 -0.00882329 -0.0812907 -0.0323608 -0.0919988 -0.0293007 -0.0035644 -0.00954229 -0.0439607 0.041674 0.0623825 -0.00111402 -0.0050018 0.0674893 -0.0708499 0.0295426 -0.00213611 -0.00367693 0.0600872 0.0840329 0.094906 -0.0675181 -0.0322857 0.0500339 0.0405139 0.0486711 0.100003 -0.0278747 0.0255946 0.0985502 -0.0632865 0.0916026 -0.00847285 -0.0239316 -0.0669362 -0.0583553 -0.0458559 0.0863176 0.0303463 -0.0733216 0.0951699 -0.0234332 -0.0162677 0.0814387 -0.0736551 -0.00450555 0.0210193 0.0064605 0.0789673 0.0209967 0.074372 -0.0888926 0.0311506 0.0271708 -0.0936372 -0.0609762 -0.0735191 -0.0607762 -0.0220482 -0.0858566 -0.0165549 -0.0705697 -0.0289842 0.0884279 0.0730842 0.0249021 0.00374488 0.00680908 -0.0649302 -0.0372887 0.0822448 -0.0966088 0.0319661 -0.0321461 -0.00605185 -0.0797661 -0.0917751 -0.00282311 0.00336271 -0.0329755 0.0418395 -0.0874546 -0.0444417 -0.0827764 0.0605369 -0.0656103 -0.0613954 -0.0302936 -0.064683 0.0405349 -0.0837391 0.0308806 -0.0358932 0.0445599 0.0892836 0.0092735 0.0347384 0.0646796 -0.00427812 0.0270169 -0.0782124 0.0496079 0.0688821 0.0300367 0.0908457 0.0892868 -0.08055 0.0848548 0.0863936 0.089618 0.078823 -0.0504853 0.0117851 -0.056513 -0.0503024 0.0334296 0.0561301 0.0882323 0.0031706 -0.0400741 0.0382057 0.0587158 0.0152108 0.0563125 0.0160662 -0.0480649 0.026023 -0.0886455 -0.0423555 -0.0926417 -0.0740648 -0.0108237 -0.0211897 -0.0375509 -0.0476089 0.0411621 -0.0975504 0.0985837 -0.0496079 0.0772365 0.0122384 0.0695276 -0.0886819 0.0311226 0.0218624 0.0574886 0.0485262 -0.0875292 0.0912508 -0.0939521 -0.0951535 -0.0245203 -0.0693348 0.00138188 -0.0587571 0.0584753 -0.00713728 -0.0592077 -0.0319093 0.0825281 0.0275361 0.0437497 -0.0279506 0.0192381 0.00127957 -0.0781412 -0.0328646 -0.0870541 0.00738203 0.029408 0.0199261 -0.0740361 0.0446655 -0.0840434 0.0102332 -0.088913 0.0111549 0.0956302 0.0104573 -0.0549538 0.0542448 -0.0120085 0.0905964 0.0953971 -0.00249348 -0.0607291 -0.0878956 0.0300092 -0.0450373 0.0678035 -0.0439204 0.0451998 -0.0628969 0.0441486 0.0646828 -0.0287079 0.0656007 -0.0911431 -0.00721235 0.0472762 0.0482359 0.0023377 0.0173599 -0.0102382 -0.059245 -0.0161833 -0.0503493 -0.0719337 0.0267962 -0.0363335 -0.055662 0.0518608 0.0356679 -0.086033 0.0776241 0.034517 -0.0661111 0.0321066 0.0975827 -0.0978786 -0.0299895 -0.00256592 0.0902605 -0.052832 0.0870185 -0.0307923 0.0943643 0.0321957 0.0684261 0.0953776 -0.0334327 0.0730942 -0.0262047 0.0142284 0.0076318 -0.0326324 0.0779383 0.0203064 -0.0397575 0.0449714 0.0203669 0.0589578 -0.0858143 0.0811454 -0.0756825 0.0414342 0.0286194 -0.0501283 0.00378374 -0.0371873 0.0300204 -0.125721 -0.224253 -0.27307 -0.330561 -0.236847 -0.181124 -0.180435 0.0483157 -0.0575519 -0.0448729 0.132333 0.217293 0.155431 0.0328621 -0.140769 -0.193295 -0.162788 -0.151045 -0.148657 -0.0985514 0.101892 0.162722 0.153267 0.0165702 0.13594 0.133896 -0.0332664 -0.0145646 -0.0258199 -0.18934 -0.154063 0.00349701 -0.00698596 0.124173 0.0637804 0.168211 -0.0934707 0.0257693 0.0412789 0.138125 0.136338 0.0814251 -0.0601865 -0.0220353 0.183652 0.105502 -0.0607295 -0.0631615 0.112348 -0.0606405 0.0221806 0.00450932 0.0689445 0.190634 -0.0472832 -0.0395827 0.00979976 0.133824 0.139304 -0.0195149 0.0219007 -0.09496 -0.0190593 0.00951002 -0.0351621 0.095279 0.0856704 0.0111881 -0.0734099 0.00169706 0.0643235 0.0050214 0.0967209 -0.095996 -0.0259831 -0.0598901 -0.0728841 0.0341385 -0.0351674 0.12294 0.116571 -0.161444 0.134231 -0.00649521 -0.0597854 0.0602981 0.0947311 -0.083075 -0.13776 -0.0689057 0.015499 0.029134 0.207203 0.151554 0.00871218 0.0234082 0.00604266 0.161157 0.0744522 0.0906099 -0.0796266 -0.197167 -0.0100906 0.0369479 0.124478 0.0710612 0.098464 -0.0419281 0.0903634 0.0963508 0.142832 -0.0499453 0.0752667 -0.0403502 -0.077807 0.030424 -0.0590049 -0.10393 0.137664 0.0799677 0.14854 0.0122929 0.0370785 -0.00759545 -0.00926135 -0.0581561 0.0409934 -0.137841 0.0516736 0.0236932 0.00175033 0.0496767 0.0717747 0.0788259 -0.0197857 0.0959495 -0.0154878 0.055976 0.111065 0.107389 -0.0688334 0.00163285 0.0116783 -0.018443 0.0491289 0.0292767 0.22589 0.0145957 -0.0225487 -0.0033415 0.0417782 0.0339661 0.11312 0.0776979 0.0361955 0.0142434 -0.12125 -0.0599418 0.0893295 0.146452 0.209516 0.134435 -0.0503772 0.0567975 0.0222393 0.0980015 
0.398309 0.684213 0.691507 0.980761 0.906237 0.471775 0.362679 0.194931 0.433321 0.880428 0.903748 0.621893 0.389487 0.164552 0.576572 0.196928 0.256026 0.0091853 0.00368385 -0.101855 -0.253284 -0.0459343 0.213324 0.392842 0.518291 0.210375 0.176948 0.25781 -0.0887556 -0.239657 -0.630657 -0.840475 -0.778507 -0.759899 -0.846249 -0.817385 -0.264729 0.13502 0.00285124 -0.284451 0.0166224 -0.417731 -0.614718 -0.721627 -0.976522 -0.780516 -0.790378 -0.85514 -1.07271 -0.621877 -0.203965 -0.449228 -0.684378 -0.470675 -0.597189 -0.693367 -0.455073 -0.583027 -0.616159 -0.512318 -0.685353 -0.837577 -0.821911 -0.52021 -0.649012 -1.41879 -0.832464 -0.72282 -0.310059 0.14536 0.176251 0.246448 0.716359 0.323538 -0.358122 -0.621848 -0.949525 -1.15765 -1.8385 -1.06924 -0.448276 0.222992 0.754553 0.493754 0.325287 0.860873 0.988356 0.411778 -0.216008 -0.825538 -1.57433 -1.78597 -1.0378 -0.398752 0.424538 0.580376 0.341997 0.16181 0.8188 0.809531 0.339694 -0.193054 -0.689661 -1.65994 -1.04807 -0.634718 -0.0636034 0.503072 0.823101 0.463715 0.376431 0.631875 0.449037 0.0195589 -0.357365 -0.634475 -1.166 -0.639135 -0.183304 0.29239 0.403699 0.526032 0.50518 0.32971 0.412019 -0.185164 -0.0172028 -0.0939935 -0.191331 -0.659243 -0.240788 0.326304 0.330234 0.206247 0.33411 0.321575 0.205603 0.421449 -0.00507561 0.212415 0.396931 0.418636 0.147188 0.222068 0.887104 0.756431 0.0949033 -0.45125 -1.13964 -1.18004 -0.509137 -0.357744 0.347068 0.739735 0.665464 0.454489 0.228481 0.858138 0.812159 0.178583 -0.492174 -1.41396 -1.43161 -0.915227 -0.458499 0.276805 0.523094 0.501413 0.231207 0.0279741 0.0162596 0.0770323 -0.0267037 0.0828645 -0.0415702 0.0246734 -0.0694956 0.0434182 0.0786365 -0.0457526 -0.0259282 -0.0937159 0.0417954 0.0159662 -0.0785578 -0.0864676 -0.06301 -0.00529502 -0.0364934 -0.0429593 -0.00755313 -0.0137876 -0.0428181 -0.0745808 0.0622459 -0.0257009 0.0271664 -0.0732879 0.0803938 0.0815622 -0.0704388 0.0179319 -0.000688212 -0.016962 -0.0612219 -0.0289344 0.0134152 0.0622568 -0.0887265 -0.0892826 -0.0248137 -0.0169528 0.0793233 -0.0510353 0.0109611 0.0750626 0.0386729 0.0562576 0.0402029 -0.00570974 0.0806076 0.0910409 0.00704008 0.0532739 -0.0800517 0.0223393 -0.0714027 -0.0966622 -0.00569128 0.0872524 -0.0278307 -0.0636315 -0.0345351 0.0930085 0.0525683 -0.0967013 -0.00839977 0.00980354 -0.028724 -0.0815861 0.042447 0.0949087 0.00544558 -0.0543885 -0.0253632 0.048529 -0.0679899 -0.0765579 0.0650196 0.0601721 0.0125973 0.0356058 -0.0728141 0.0773523 -0.0522598 0.0973657 0.0904625 0.0960635 0.0843549 -0.0668301 -0.0197959 0.0509224 -0.0938488 -0.0624675 -0.0373378 0.093155 -0.0924236 0.0945937 0.0121857 0.0167099 0.0378848 0.0356121 0.0569374 0.0513459 0.0604009 0.0267503 -0.0399476 -0.0420475 -0.00881816 0.0510107 -0.0240197 0.0434308 -0.0481488 0.0795286 0.0719646 0.0572672 0.0328418 -0.0907567 -0.0589446 -0.0236762 0.0799961 0.0492334 0.071989 -0.00306633 -0.0178965 0.0275476 -0.0615148 0.0125072 0.0222866 0.0176225 0.0557366 0.0607579 0.045446 -0.044141 -0.031198 -0.00955032 -0.0430367 0.0141337 -0.0873265 0.0881993 0.00405692 0.0525141 0.0290946 0.07652 0.0837276 0.0919962 0.0658129 0.036048 -0.0827323 -0.0103009 0.025 0.0527271 0.00391058 0.0455141 -0.0602118 -0.0334268 -0.0649521 0.0594818 -0.00345153 0.0106276 0.0013012 -0.0497133 -0.0304713 0.0741053 0.0641477 -0.0644733 0.0725571 0.0780082 0.0488298 -0.0942928 0.0958046 -0.0925063 0.0242572 0.0370551 -0.0324705 -0.00526747 -0.0315454 0.0441673 0.0365096 0.0638341 0.0777929 -0.0594292 -0.0235305 0.0672541 0.07054 -0.0795514 0.0355971 0.0532087 -0.0730575 -0.0165973 -0.0927622 -0.0182641 -0.0464521 -0.0417836 -0.0343211 0.0321992 -0.0187608 -0.0765166 -0.0609712 0.0333226 0.0159446 -0.0970345 -0.0497445 -0.0624137 -0.0734352 0.00913986 0.0102355 -0.0199163 0.0951109 -0.0825191 -0.100118 0.0545924 0.027604 0.0745195 -0.0870684 -0.0783451 0.0289385 0.0805287 -0.00728774 0.0102268 -0.0457822 0.0679514 -0.0584175 0.00243009 -0.0545797 -0.071132 0.0559784 -0.0164855 -0.0647703 -0.00756318 0.0311408 -0.0600734 0.0747834 0.0155785 -0.09923 -0.0396315 0.026007 0.0858213 0.0591289 -0.0215119 0.0860132 0.0961016 -0.0510212 -0.0225523 -0.0858263 0.0106248 0.0325062 0.0765338 -0.0381459 -0.0602309 0.0239073 0.042702 0.0486775 0.0801664 0.0378106 0.0895783 -0.0391592 -0.0471699 0.0228744 0.0218496 0.0853108 -0.0859121 0.0879325 0.0297585 -0.0322158 0.0621646 -0.0487546 0.00768648 0.0624398 0.0893041 -0.100226 0.0894114 0.0925076 -0.024173 0.0623033 0.0605022 -0.0900349 0.0698848 0.0163478 -0.0611899 0.0737194 -0.0892162 -0.0741506 0.0177467 0.0621609 0.0920727 0.024339 0.023201 -0.078514 -0.0787305 0.0288024 -0.0959877 0.0162567 -0.0435371 -0.0763073 0.0951542 -0.0268239 0.0563937 0.0817466 -0.0276635 0.0117661 -0.0497535 -0.00493407 -0.0350666 0.00445501 -0.0540086 0.0871269 -0.0205814 0.0229423 0.0841858 0.0204601 0.0783317 -0.0934858 0.0219826 0.0757781 0.053106 0.0868815 0.0977966 0.00624175 -0.065306 0.0753225 -0.06188 0.0253952 0.0352353 -0.0423188 -0.0880911 0.044347 0.0839659 0.0979275 0.0311352 0.0773462 0.0133477 0.0846536 -0.0955988 0.0947187 0.0196463 0.0325226 0.0629518 0.174361 0.178596 0.230085 0.108574 0.14378 0.0709791 -0.0274011 -0.0251423 0.161231 0.0487304 0.124518 0.0151413 0.00254993 -0.0196263 0.0398424 -0.0339284 -0.033845 0.0867488 -0.0340665 0.0656243 0.0421663 0.158474 0.144572 0.090158 0.110037 -0.0617715 -0.0608749 0.067175 0.00048578 -0.0473348 -0.174035 -0.0857513 -0.0765855 -0.168678 -0.101613 0.000859733 -0.0389207 0.066292 -0.0492939 0.00365474 -0.114674 0.00413548 -0.0191514 -0.215927 -0.138912 -0.0988047 -0.100917 -0.181265 0.00563723 -0.0590823 -0.1325 -0.0714783 -0.101093 -0.0765118 -0.103658 -0.0157758 -0.114283 -0.154471 -0.144337 -0.156957 -0.0369846 -0.00758765 -0.102539 -0.153241 -0.2022 -0.0698261 -0.0849831 -0.11662 -0.0228733 0.0139143 -0.0404608 -0.00910245 0.100789 -0.0962086 -0.098828 -0.0945758 -0.14827 -0.227894 -0.177886 -0.0936681 -0.0569046 0.131743 -0.0235841 0.105609 0.0300231 0.11255 0.0512601 -0.0531667 -0.169798 -0.156697 -0.328126 -0.102137 0.0227017 -0.0317429 0.0183855 0.0240499 0.0842845 0.150274 0.189739 0.0389629 -0.137971 -0.202447 -0.282371 -0.178439 -0.0633998 -0.0339125 0.0616792 0.193514 0.0789232 0.156985 0.0828524 -0.0358801 -0.027914 -0.0392452 -0.165829 -0.166685 -0.102219 0.0573836 -0.0354478 0.161998 0.132444 0.0241799 -0.0188791 0.082883 0.0561349 -0.0932039 -0.0167536 -0.0303537 -0.0487445 -0.125118 -0.0266455 -0.0265188 0.0984959 0.106563 -0.0482698 -0.000851363 0.0467172 0.100377 0.121036 0.0938302 0.0267582 -0.0394156 0.0561941 0.184878 0.13135 0.104475 -0.130422 -0.151875 -0.0278369 -0.0750592 -0.0707454 0.043426 0.039102 0.00696602 -0.0123495 0.0875482 0.129048 0.0230024 0.0501726 -0.0163817 -0.283193 -0.273491 -0.0489863 0.0145104 -0.0495734 0.0575875 0.083778 0.0278085 
-0.37391 -1.01621 -0.846507 -0.0140127 0.998215 1.3846 1.34146 1.31326 0.897627 0.129332 -0.859824 -0.932944 -0.44372 -1.13721 -1.34474 -0.644737 0.603953 1.31767 1.26979 1.25345 1.00756 0.995585 0.777585 -0.157373 -0.91598 -0.946154 -1.15103 -0.830098 0.364135 0.770574 0.204768 0.627853 0.855241 0.125553 0.431901 0.652772 0.770835 -0.0458899 -0.4802 -0.614946 0.403814 0.808454 -0.0386412 -0.97287 -0.190381 0.502878 -0.287385 -0.253597 0.296376 0.780044 0.792352 0.237035 0.353073 0.522237 0.101537 -0.963707 -1.39434 -0.13983 0.702831 -0.156601 0.0107095 -0.213644 0.0925287 0.874564 0.752015 0.786437 0.00369416 -0.605029 -1.12729 -1.30602 0.758188 1.36772 0.0896775 -0.384127 -0.320435 -0.300006 0.417807 1.22145 1.04392 -0.162373 -0.998403 -1.05726 -0.787496 1.38569 2.39083 0.758038 -0.158946 0.181658 0.301559 0.26416 1.10859 1.12213 0.0224075 -1.04582 -1.47088 -1.03043 0.596431 1.2613 0.279222 -0.35192 -0.203305 0.154866 0.291481 0.778984 0.697341 0.491017 -0.246785 -1.1417 -1.23965 -0.611563 -0.321058 -0.723159 -0.719871 -0.330622 0.20612 0.478191 0.396648 -0.406385 0.406189 0.782325 -0.0302541 -0.809603 -0.79145 -0.223588 -0.595587 -0.563721 -0.162301 0.463123 0.198502 -0.1952 -1.33528 -0.656591 0.762353 1.00227 -0.0196738 -0.441465 -0.0736539 -0.0311042 0.0971815 0.358212 0.393404 -0.375675 -0.617781 -1.20203 -1.26073 -0.309793 0.39838 0.324625 0.303002 0.359619 0.327009 0.393229 0.24874 -0.410225 -0.789522 -0.7501 -0.319543 -0.94562 -0.776741 -0.285576 0.402285 0.934429 0.933407 0.702364 0.254905 -0.324251 -0.68802 -0.750835 -0.30837 -0.0948209 0.0224353 -0.0844482 -0.0258861 0.0669635 0.0357767 -0.07185 -0.068187 -0.0533242 -0.0802026 -0.0383323 0.00918232 0.0767006 -0.0442497 0.0365088 0.0520433 0.0973854 -0.00823213 0.00807333 0.00658769 -0.055808 0.00163177 -0.0972361 0.0210187 -0.0402417 0.0747718 -0.00573184 -0.0310646 -0.0309356 -0.0694118 0.0777449 -0.0657279 0.0294277 -0.0361991 -0.0662301 -0.0746117 -0.0882424 -0.0544911 0.0803724 -0.0207593 0.0296419 -0.0267563 -0.0278373 -0.0963369 0.0453322 -0.0533912 -0.0952566 -0.00404058 0.0902134 0.0529234 0.0935263 0.0433821 0.0295135 0.0751289 -0.0955163 -0.0766361 -0.08168 0.00587066 0.0539191 0.0358257 0.0271322 0.0211766 -0.061283 0.0133216 0.0403662 0.0421406 -0.0942313 0.0643009 0.0163539 0.0153747 -0.0607624 -0.0526565 0.0267158 0.0514205 -0.0137917 0.0907138 -0.0410774 -0.00550146 0.0920961 0.0720386 -0.0410695 0.00443626 -0.0896577 0.0774069 -0.0271648 0.0409499 0.037812 -0.027674 -0.0746136 0.0822348 -0.00487018 -0.0972589 -0.0645729 -0.0224536 -0.0860582 -0.0285601 -0.05956 -0.075482 -0.090834 0.0243741 -0.0851448 0.0907029 0.0206995 -0.0564336 0.0730579 0.000555441 -0.0675212 0.0559734 0.0199861 -0.0439701 0.0960376 0.0619381 0.033817 -0.0758701 0.0789619 0.08648 0.0897811 0.00854711 0.0299812 0.0680096 -0.0549992 0.0608707 -0.00704242 0.0968721 -0.0262258 0.023031 0.00382391 0.06873 -0.0252527 0.100152 -0.0831355 -0.0669543 0.0979517 -0.0543618 0.0434406 0.0474805 -0.0400177 0.0947304 0.0392346 -0.0337737 -0.0171023 0.0136533 0.0130226 -0.0805304 0.0976243 -0.0797667 -0.0672842 -0.0698578 0.0400776 0.0158983 0.00419717 0.0887316 0.00122947 -0.0639296 -0.0680415 0.0239137 -0.024057 -0.0929019 0.0100534 -0.0404911 0.0588795 0.0836476 0.0098827 -0.0143884 0.0163481 0.0921047 -0.0603647 -0.0664738 -0.0614898 0.0383817 0.0411449 0.070378 -0.0366123 0.0820395 -0.0580815 -0.0190826 -0.022105 -0.077295 -0.0970785 -0.0495371 0.0592323 0.0425504 0.0899049 0.0923333 -0.0296932 -0.0743265 -0.00469937 -0.0321029 -0.0709269 -0.0941364 -0.0696051 0.0616314 -0.0465047 0.0370553 -0.0189148 0.0680059 0.0737683 -0.0340845 0.038773 0.0475449 -0.0879256 -0.0304673 -0.0198025 0.0906156 0.018344 0.00422499 -0.00140151 -0.031178 -0.0151953 -0.0876985 -0.0629203 -0.0293028 -0.0732156 -0.00796103 0.0266755 -0.0885438 -0.0203478 0.0806039 0.0810875 0.099548 -0.0168792 0.0387046 -0.0114624 -0.0065937 0.0843762 -0.0545393 -0.0711054 -0.0602343 0.0220191 -0.0655222 0.0875183 0.0238387 0.0391583 0.052706 -0.0058406 0.0294627 -0.0238763 -0.0370477 0.100976 -0.0174943 0.0485687 0.0794107 0.0825451 0.0975055 -0.01799 0.0941588 -0.0479848 -0.032696 0.0111843 0.07491 -0.0189732 0.0689625 0.0388958 0.0406523 -0.000118671 -0.0563834 -0.070733 0.0198131 0.0461826 0.0472137 -0.0184078 0.0981805 0.015648 0.054543 -0.0574839 0.0966329 -0.0489343 -0.00925459 0.0254057 0.0693316 -0.0336139 0.0975981 -0.0109215 0.0598189 0.0897777 -0.0939501 -0.0913091 -0.0774544 0.024351 0.0734451 -0.0701476 0.0424024 0.015088 0.00255706 -0.0507708 -0.00645361 -0.000326955 0.081529 0.0184753 -0.090728 0.0471196 -0.0820756 0.0349339 0.0981498 -0.0027519 -0.043746 0.0854776 -0.0936508 -0.00172045 -0.0537867 0.101122 -0.0427928 -0.073873 -0.0198795 0.0638304 -0.0823217 0.027513 0.0759624 -0.0269687 -0.0312569 -0.0148082 -0.00248448 0.0244549 -0.0757742 -0.00877813 -0.08532 -0.0647405 0.0987606 -0.00543622 -0.0401078 -0.0532779 0.0949139 -0.0535833 -0.0438737 -0.00197677 0.0893607 -0.0230642 0.0947449 0.011694 -0.027763 0.00832284 -0.0763297 0.0757731 -0.000597007 -0.0810859 0.078518 -0.00551436 -0.0538455 0.00619538 -0.165715 -0.131522 0.0595555 0.0990528 0.0583722 0.217446 0.222182 0.100373 0.0742943 -0.14353 -0.0104193 0.00663888 -0.214959 -0.230977 -0.013964 0.130501 0.216951 0.236559 0.141764 0.0760838 0.139407 0.166378 -0.0814756 -0.180597 -0.0225095 -0.130194 -0.213663 0.107042 0.130947 0.0324871 0.178201 0.198876 0.0123429 0.167341 0.0930307 0.16151 -0.0573214 -0.054313 -0.158207 -0.0500446 0.0392877 -0.00605685 -0.0325608 0.0146966 0.138365 -0.0757237 0.0174424 0.0950138 0.11166 0.0587151 -0.0340874 0.0470268 0.124598 0.00900323 -0.0778961 -0.277769 0.0162488 0.00935188 -0.137778 -0.0375976 -0.0194471 0.0197792 0.186824 0.0839882 0.0948719 0.00355407 -0.0742528 -0.24833 -0.103547 0.108079 0.0723811 0.0413876 1.65408e-05 -0.0129358 -0.0548124 0.162765 0.0518602 0.0345995 0.0339449 -0.156647 -0.169718 -0.0895494 0.232046 0.295898 0.0181174 -0.0682867 -0.072305 0.0869513 0.103161 0.127168 0.0864662 -0.10509 -0.151309 -0.248671 -0.0587577 0.102196 0.278433 0.0619287 -0.0847687 -0.0441363 -0.0324407 0.00720264 0.021487 0.138698 0.0638143 -0.0967085 -0.191206 -0.173618 -0.14804 -0.00284231 -0.0197025 -0.178525 -0.0623089 0.0513173 0.123846 -0.0288106 -0.0436429 0.0703817 0.0570871 0.0473795 -0.172049 -0.03046 -0.083145 -0.176198 -0.0957468 -0.0411559 -0.0231419 0.0102696 0.0302807 -0.202463 -0.0791254 0.0846107 0.174473 0.0249472 -0.0563219 -0.0165894 0.0209893 0.0134989 -0.05284 -0.00315176 -0.0817291 -0.115971 -0.186997 -0.119021 0.00306025 0.156804 0.148237 -0.0758601 0.0420704 -0.0601757 0.115025 0.0446389 -0.0483766 -0.180579 -0.128687 -0.146783 -0.170354 -0.15508 -0.0724815 -0.0154175 0.220195 0.127907 0.0410113 -0.034183 -0.0776241 0.0150964 -0.140652 -0.0108756 
-0.091114 -0.35354 -0.281977 -0.130594 0.0194397 0.139166 0.212574 0.347636 0.552488 0.457115 -0.0426835 -0.329671 -0.334579 -0.409396 -0.24028 0.110979 0.566401 0.344754 0.133562 0.173056 0.279926 0.610418 0.422723 0.106305 -0.222244 -0.640754 -0.886597 -0.160905 0.0878862 0.0592862 -0.145605 -0.416404 -0.456732 -0.369296 -0.386664 -0.244789 -0.127456 -0.433249 -0.666953 -0.900499 -0.421218 -0.179568 -0.380842 -0.182281 -0.142539 -0.276664 -0.353739 -0.357049 -0.419746 0.102617 -0.0147169 -0.501374 0.140731 0.867929 0.737022 0.615362 0.691007 0.251076 -0.334604 -0.280083 0.230525 0.203183 0.947217 0.875891 0.128421 1.09651 1.02048 0.77024 -0.0949811 -0.391278 -0.971962 -1.32635 -0.972852 -0.450419 -0.318184 0.448269 0.995367 0.60416 0.972024 1.03097 0.635753 -0.876531 -1.66114 -1.56212 -1.77574 -1.57302 -1.29298 -0.981824 -0.196513 0.878207 1.03262 0.615836 0.779991 0.768543 -0.221782 -1.2144 -0.865564 -0.95174 -1.18639 -1.63895 -0.913774 -0.0614626 0.777416 0.565708 0.162968 -0.0274717 0.0977398 0.0750924 -0.103639 0.397414 0.503794 0.237931 -0.0344032 -0.356392 -0.116896 0.42983 -0.118006 -0.19681 -0.571266 -1.09852 -0.630202 0.135817 0.735963 0.549368 0.585169 0.266325 0.123114 -0.32707 -0.459575 -0.401238 -0.0679428 -0.225794 -0.84373 -0.781197 -0.357077 0.214451 0.31696 0.0690694 -0.026661 -0.148405 -0.449951 -0.708449 -0.245236 0.0270984 -0.150655 -0.547699 -0.72813 -0.477077 -0.344841 -0.411108 -0.338501 -0.502798 -0.484347 -0.79819 -0.685307 -0.228149 -0.0955606 -0.135962 -0.308158 -0.303704 -0.329314 -0.233252 -0.469291 -0.701372 -0.521151 -0.672168 -0.677848 -0.221893 -0.0217625 -0.0143726 0.0672059 -0.000125616 0.0343625 0.0391223 -0.0172459 -0.0701225 0.0989278 0.0272276 0.0356903 0.029921 0.0876783 -0.00397872 -0.0816332 0.0327377 0.0740215 0.0102428 0.0796237 -0.0423414 -0.00292838 -0.0420445 0.0397027 -0.00353994 -0.0661941 -0.0393351 0.0823806 0.0554418 -0.00986449 -0.079179 -0.0654055 -0.0581273 0.0707408 0.0408597 -0.0588671 0.0728968 0.0811263 0.0395135 -0.0664054 0.0832226 0.0208442 -0.0967115 -0.0917979 0.0246349 -0.0812912 0.097194 -0.0866723 -0.0741872 0.0736777 0.0704591 0.0515901 -0.000499458 -0.0479784 -0.00715316 0.0170497 0.0870962 0.00192176 -0.0603284 0.0475691 -0.00184582 -0.0698579 0.0641603 -0.0844235 -0.0517485 -0.0835547 0.00298117 0.0822472 -0.0180223 -0.0874357 0.0208564 -0.0270234 -0.0749747 0.0588461 -0.078907 -0.0880315 -0.0192369 0.0257766 -0.0879147 -0.0547035 -0.0424698 0.0894735 -0.0216587 0.00136064 -0.0241027 -0.0771443 -0.0679843 0.0255206 0.0519495 -0.0573 0.00239285 0.0266436 0.057583 -0.014422 0.0153733 -0.0280433 0.00808626 -0.0380105 0.0883806 0.0906714 -0.027152 0.0351893 0.0916177 -0.00838889 0.00168358 -0.00162415 -0.041742 0.0524197 -0.0834184 -0.0125405 -0.0524845 -0.0522139 -0.0166378 0.0070254 -0.07761 -0.00973515 -0.0666966 0.0116703 -0.0776127 0.0806215 0.0983815 -0.0113194 -0.0904392 0.000926538 -0.0353909 0.0313688 0.0126179 0.0496232 -0.0708949 0.032241 0.0713188 -0.0988066 0.0994866 -0.0542339 0.0340006 -0.0722694 -0.0193944 -0.0854957 0.051253 0.0724042 0.0647539 -0.0312895 -0.0332361 0.0842485 -0.035586 -0.00674081 0.0579457 0.0209498 -0.0703006 0.0992144 -0.0398641 0.0245622 -0.0637747 0.0489425 -0.0256559 0.0718109 0.0492016 -0.0797639 -0.055734 -0.0714822 0.0238133 0.0320833 0.0748083 -0.026742 0.0189628 -0.0853102 0.07104 -0.0630987 0.0210541 -0.0430709 -0.00564408 0.042262 0.0592151 -0.0881101 -0.0135099 -0.0516539 -0.0296087 0.0962854 0.0935524 0.0240629 0.0270159 0.0515306 -0.092094 -0.0621056 -0.0123621 -0.0783282 0.0723742 0.0801192 0.0525827 0.0885701 -0.0409254 0.0208136 -0.0817333 -0.044359 -0.00868962 -0.0934286 -0.00118741 0.000836003 0.0961041 0.0186728 0.00286393 -0.0362906 -0.0612135 -0.0323341 -0.0568171 -0.0569553 0.081848 -0.0362558 -0.0290071 0.0436193 0.0896801 0.0591862 0.0956383 -0.083901 0.0808365 -0.0703973 -0.0209678 0.0770128 0.0253529 -0.00735873 -0.0819312 -0.0521033 0.0572495 -0.0325937 -0.0634199 0.0684324 0.0591949 0.0262813 -0.0900979 0.0382437 0.0469932 -0.00699631 0.0984827 0.044795 -0.0154025 -0.0212311 -0.0351408 -0.0312925 -0.0140454 -0.00718955 0.0519949 0.0487187 0.0664748 -0.0849735 0.00670222 -0.0818471 0.0467998 -0.0659446 -0.0633899 0.0710138 0.0178281 -0.091158 -0.00293827 0.100578 0.101384 0.0335176 -0.0899505 -0.0767241 0.0780642 -0.00634173 0.024841 0.0381661 -0.0813172 -0.0890723 -0.00754352 -0.00017676 -0.000710968 -0.0551886 -0.0243451 0.0777198 0.0872136 -0.0818235 -0.00547636 -0.00446779 -0.00644194 -0.0815617 0.0373438 0.0580493 0.0256023 -0.0716444 0.00350234 -0.0583469 -0.00712375 0.0590295 0.0432334 -0.0814832 0.00213655 -0.0718533 -0.0189095 -0.0492101 -0.00796153 -0.0187234 0.0350784 0.00871077 -0.0325756 0.0647708 0.0763241 -0.0981719 -0.00625062 0.0566361 0.0368854 -0.0665418 0.0200751 0.0553134 0.0876562 0.0666245 0.0125102 -0.08538 0.0785844 -0.0675601 -0.092781 -0.0915921 0.0194633 0.00485818 0.0417225 0.00152801 0.0206927 -0.0361468 -0.0637616 -0.0121948 -0.0126884 0.0598533 -0.0824012 -0.0777659 0.0231708 -0.0782655 -0.093093 -0.0305763 0.0492278 -0.0894607 -0.0540311 0.0465525 0.0161851 -0.00826653 0.095152 -0.0393298 -0.0657491 -0.094014 0.00536621 -0.0982621 0.0154174 -0.114906 -0.00168196 -0.110624 -0.0663415 0.0747529 0.0598652 0.0905205 -0.0224756 0.0197269 -0.0833284 -0.0614301 0.0599352 0.0138054 -0.109657 0.0849066 0.153539 -0.0212642 -0.090947 -0.0135528 -0.0507668 0.152486 0.0646613 -0.00599221 -0.0483025 0.01404 -0.0278345 -0.00343428 0.0696623 0.0682241 0.0115287 -0.0686564 -0.0670984 -0.0854579 -0.0463116 -0.0159645 -0.00624712 -0.044272 -0.146421 -0.137992 -0.00475129 0.0369573 0.00611111 0.0559673 -0.0950384 -0.0472363 -0.0163033 -0.0651282 -0.133957 0.00380957 -0.0568013 -0.0140178 -0.031742 -0.000904615 0.0969983 0.0878703 0.124307 0.0600813 -0.0781513 0.0287083 0.0528981 -0.0171836 0.178627 0.13515 0.0277594 0.104822 0.183638 0.18916 0.0460765 -0.0457307 -0.127 -0.132225 -0.00723705 -0.0497869 0.0787842 0.0467603 0.0568594 0.134069 0.163449 0.162721 0.166007 -0.0459671 -0.198336 -0.175064 -0.163426 -0.186262 -0.103014 -0.197557 0.0237192 0.120705 0.127162 0.15055 0.097805 0.110834 0.00418495 -0.179857 -0.241195 -0.246912 -0.0873104 -0.165049 -0.142945 -0.0241737 0.0919899 0.0877422 -0.000809137 -0.00369581 0.0167202 0.0396245 0.0316976 0.0923491 0.0390182 -0.00477159 -0.0298481 -0.0819602 -0.0632911 0.0137236 0.0803113 0.045587 0.0218666 -0.185658 0.0143801 0.0135129 0.0523021 0.055898 0.0480293 -0.0100257 -0.0144369 -0.00567033 -0.0832349 -0.0170105 0.0756174 -0.143061 -0.174657 -0.0366077 -0.0876629 -0.000249542 0.135371 0.104065 0.0322559 0.0370413 -0.0674054 -0.108725 -0.108039 -0.0967393 0.0684792 -0.0134383 -0.139973 0.0206748 0.0577735 0.0215126 -0.108571 -0.0253846 -0.0142274 -0.168882 -0.112829 0.0244718 0.0741157 0.0769557 -0.00996429 -0.16274 -0.0241809 -0.0225416 -0.0130331 -0.0733298 -0.140752 -0.189379 -0.0813689 -0.0104157 0.0438564 
-0.163705 0.171946 0.448244 0.238327 0.494874 0.861805 0.717875 0.645714 0.539929 0.51473 0.568976 0.242587 -0.0507587 0.661734 0.809722 1.05247 0.510432 0.15106 0.197705 -0.123861 -0.0134957 0.132966 0.138971 0.30952 0.248357 0.0582602 1.7017 1.35694 1.02922 0.586021 -0.164779 -0.139449 -0.253912 -0.0124024 0.194424 0.221882 0.332627 0.144128 0.31673 1.59095 0.817631 0.691377 1.01155 0.612075 0.213241 0.118575 0.52909 0.61167 0.552457 0.391487 0.045859 0.298211 1.03492 0.205801 0.163278 0.526153 0.213381 -0.487199 -0.460291 0.296147 0.380802 0.305754 0.359758 0.0577981 0.858991 0.386378 -0.233409 -0.401899 0.547058 0.259676 -0.223937 -0.421147 0.400206 0.505229 0.224829 -0.0417133 -0.205074 0.63909 -0.03496 -0.250313 -0.517444 0.191427 0.28801 -0.573641 -0.929089 0.0742341 0.399422 -0.159269 -0.237087 -0.373377 0.331312 -0.0907577 0.0214028 -0.342291 -0.150557 -0.267561 -1.25815 -1.64669 -0.434414 -0.173185 -0.193616 -0.0356537 -0.173961 -0.0478046 -0.200899 -0.200792 -0.448264 -0.29883 -0.587448 -1.20547 -1.08636 -0.3031 -0.17326 -0.200485 -0.105107 -0.38388 -0.596358 -0.185022 -0.374135 -0.486071 -0.417785 -0.268683 0.142324 0.0980684 0.0782997 -0.297992 -0.684163 -0.734294 -1.07882 -0.814351 -0.19147 -0.456084 -0.686168 -0.593796 -0.484735 0.0530683 0.408167 -0.18948 -0.921278 -1.02929 -1.35188 -1.19251 -0.698649 -0.29276 -0.506457 -0.582611 -0.437579 -0.237413 0.258246 0.444146 0.069032 -0.518132 -0.580416 -0.835466 -0.660562 -0.342836 -0.207687 -0.104566 -0.0577683 0.167864 0.424688 0.801595 1.07653 0.736359 0.326442 0.230771 -0.0104716 -0.170466 -0.0523634 -0.074465 0.055009 0.0972273 -0.0893917 0.05455 -0.0420716 0.0801529 0.00360149 -0.0971317 0.0749881 0.00932328 -0.0299021 -0.0520941 0.0812978 0.041153 -0.0966996 -0.0704431 0.00424749 0.0567503 -0.0263397 -0.00022245 0.0944361 0.0689995 -0.0778273 0.0633448 -0.063284 -0.0687139 0.0889468 -0.0634139 0.0985799 0.00243321 -0.0881844 0.0530668 -0.0707141 -0.0236592 -0.0263265 -0.0445525 0.015928 -0.0537535 -0.0543079 0.0998446 0.0968058 0.0765625 0.0755105 0.000172037 -0.0510482 -0.0163014 -0.0083232 0.0526084 0.0413682 -0.0149312 0.0671496 0.0655744 0.0739382 -0.0894261 -0.0950298 0.0232241 0.000749113 0.0655068 0.00290488 -0.0731173 0.0481402 -0.0038988 -0.0518326 0.0279026 -0.072465 0.0747822 0.000438948 0.094394 -0.0464625 -0.036088 0.0316295 0.0504308 0.0839066 -0.0509003 0.0495132 -0.00745215 -0.0409627 0.0112569 0.0930396 -0.0591784 -0.0244074 0.0352383 -0.0612063 -0.042878 -0.099136 0.0319395 -0.0206651 -0.0744158 -0.00262687 -0.063947 -0.0778574 0.0769107 0.0105843 0.0887108 0.077118 -0.0512452 0.00495318 -0.0235754 0.0890132 0.0365846 -0.0589273 0.0908965 0.0520017 0.0448203 0.0270856 -0.0864634 0.0828238 -0.000868526 -0.0670679 -0.0970513 -0.0866921 -0.0778739 0.0814448 0.048973 -0.0740461 -0.0862861 -0.0922987 0.0900256 0.0230269 -0.0156653 -0.0726175 -0.0211392 -0.0243603 0.0379801 0.0748544 0.0655514 -0.000182836 -0.0284747 -0.0524343 -0.0267925 0.0153834 0.0963094 0.0710524 0.0829048 -0.0294983 0.0241878 -0.0567947 -0.0373314 0.0506946 0.0552481 0.0273483 0.0469845 -0.0557493 -0.0225946 0.0563838 -0.0332978 0.0441896 -0.0669253 -0.0432472 -0.0519642 0.0955833 0.0735877 0.029803 -0.0558845 -0.0196204 0.0233209 0.0602701 -0.0848917 -0.0062326 -0.0930547 -0.023176 0.0627043 0.0395673 -0.0498769 -0.0257232 -0.0884146 -0.0568619 -0.00916914 0.0845597 -0.00464379 -0.0956625 -0.0527874 -0.0717149 0.0383102 0.052661 -0.0556195 0.0344348 0.0390433 -0.00600735 -0.034612 0.0395864 0.0783783 0.0371201 -0.0820974 -0.0335904 0.0811073 0.0289751 -0.00442698 -0.0834209 0.0330037 -0.081331 0.019932 -0.0636612 -0.0535758 0.0994545 0.0245955 0.00415824 -0.0557564 0.0957718 -0.00188055 -0.069336 0.0126852 0.0778765 0.019643 0.0510409 0.0742421 0.0949494 -0.0787882 -0.0162554 0.0237628 -0.0447155 -0.0812914 0.0809178 -0.0512522 0.0686188 -0.096723 0.0364619 -0.0523975 0.0976728 0.0793713 -0.0734823 0.0239799 0.0210065 0.0363625 -0.0917571 0.0342427 0.0155158 -0.0900749 0.0577157 -0.035645 -0.0548607 -0.0391508 -0.00512249 -0.0721025 0.090524 -0.0274908 -0.0568232 -0.0410728 0.0983672 0.0588554 0.0949049 -0.0182566 -0.00881773 0.0603661 -0.0604381 0.0505889 -0.00541928 0.0719977 -0.0292339 0.00741023 0.0410763 -0.0487377 -0.0907963 0.0949085 -0.0819573 -0.0682035 0.00508065 0.045121 0.0942273 -0.0489134 -0.0446366 -0.0426782 -0.0169053 0.0441085 0.0211928 -0.0357637 -0.0604469 0.0611877 0.0847268 -0.0918799 0.0829065 -0.0357937 -4.10377e-05 0.0867825 0.046195 0.00844777 -0.00228955 0.0680203 0.00143513 -0.082618 -0.0760653 0.0328104 0.00225473 0.0507717 0.0028917 0.0614812 0.0233455 -0.0517381 -0.0312275 -0.00333756 -0.0853366 0.0399854 0.0443224 -0.089096 0.0839264 0.077142 -0.0112871 0.0374721 -0.0974362 -0.096958 0.0881793 -0.0611054 0.0398464 -0.100316 -0.0477319 0.00602548 -0.0623439 -0.0589736 -0.0208895 0.0979136 0.0504502 -0.00531965 0.0913127 -0.100054 -0.00113157 -0.0342317 0.0868118 -0.0520258 -0.0856169 -0.0275443 -0.0285642 0.0200305 -0.0541502 0.0382709 0.0172678 0.031414 -0.0928342 -0.0595546 -0.100348 -0.0195201 -0.0572027 0.0642174 0.090385 0.0724063 -0.0542267 -0.0123372 0.0459439 -0.0926709 -0.0159743 0.0270931 -0.0493808 0.10848 0.208162 0.0170417 0.192624 0.0768176 0.00665624 0.11924 -0.00750242 -0.0306229 0.0260207 0.0512538 0.134045 0.0156015 -0.0248314 0.00327691 0.105367 -0.0686563 0.107812 -0.0133134 0.0525377 -0.0290187 0.118359 0.281004 0.149002 0.0816798 0.0400212 0.000371186 -0.0305546 -0.0903422 -0.0576241 0.0658327 0.0633 0.0304321 0.0672747 -0.0237137 0.205675 0.124308 0.0971336 0.123519 0.0700182 0.0211557 -0.0591195 -0.0212443 0.0301017 -0.0102463 0.134396 -0.0384812 0.0237787 0.112182 0.0726233 0.00310532 0.034776 -0.0431577 0.0534046 -0.0176354 -0.0107631 0.0334584 0.0620068 0.0284126 -0.0249756 0.123816 -0.0160862 -0.0586607 -0.0499945 0.155689 0.0777666 -0.0508641 0.00662715 -0.0391689 0.0559535 0.079276 0.0129119 0.00793851 0.0137837 0.0711956 0.00331505 -0.077172 -0.00941724 0.00887799 -0.0471397 -0.0857206 -0.00468138 0.00398032 0.0195426 -0.108321 -0.110344 -0.0390949 -0.103769 0.0523005 0.00959539 -0.00493553 -0.103623 -0.264682 -0.137924 -0.10999 0.0482085 -0.00104115 -0.0515399 0.0260553 0.00324144 0.00086434 -0.0507777 0.0228731 0.00539107 -0.156429 -0.123172 -0.187966 -0.0865646 -0.099527 0.0851308 0.0769451 -0.0871217 0.0131335 0.0401921 0.0251398 -0.0310381 -0.0909436 -0.144665 -0.0544676 -0.0552487 -0.0287211 -0.084794 -0.0546559 0.00841818 -0.164052 -0.139974 -0.0982356 -0.0410713 -0.110431 -0.0215866 -0.101942 0.0191692 0.0432904 0.0516701 -0.10148 -0.124618 -0.257507 -0.151839 -0.0908751 0.0351006 -0.131283 -0.0982435 -0.17622 -0.0711688 -0.00587895 0.113537 0.0315669 -0.0367712 -0.0749467 -0.155174 -0.159996 0.0569518 -0.0112549 -0.0239017 0.0366396 -0.0745051 -0.00632179 0.0501288 0.168107 0.0548869 0.0448176 0.00770772 -0.0423757 -0.0189692 0.0500993 
